digraph Tree {
node [shape=box, style="filled", color="black", fontname="helvetica"] ;
edge [fontname="helvetica"] ;
0 [label="age <= 44.5\ngini = 0.481\nsamples = 1000\nvalue = [598, 402]\nclass = Not purchased", fillcolor="#f6d6be"] ;
1 [label="annual_salary <= 90750.0\ngini = 0.302\nsamples = 664\nvalue = [541, 123]\nclass = Not purchased", fillcolor="#eb9e66"] ;
0 -> 1 [labeldistance=2.5, labelangle=45, headlabel="True"] ;
2 [label="annual_salary <= 69750.0\ngini = 0.081\nsamples = 545\nvalue = [522, 23]\nclass = Not purchased", fillcolor="#e68742"] ;
1 -> 2 ;
3 [label="gini = 0.0\nsamples = 322\nvalue = [322, 0]\nclass = Not purchased", fillcolor="#e58139"] ;
2 -> 3 ;
4 [label="age <= 36.5\ngini = 0.185\nsamples = 223\nvalue = [200, 23]\nclass = Not purchased", fillcolor="#e88f50"] ;
2 -> 4 ;
5 [label="gini = 0.0\nsamples = 114\nvalue = [114, 0]\nclass = Not purchased", fillcolor="#e58139"] ;
4 -> 5 ;
6 [label="annual_salary <= 84750.0\ngini = 0.333\nsamples = 109\nvalue = [86, 23]\nclass = Not purchased", fillcolor="#eca36e"] ;
4 -> 6 ;
7 [label="age <= 43.5\ngini = 0.296\nsamples = 105\nvalue = [86, 19]\nclass = Not purchased", fillcolor="#eb9d65"] ;
6 -> 7 ;
8 [label="annual_salary <= 70500.0\ngini = 0.313\nsamples = 98\nvalue = [79, 19]\nclass = Not purchased", fillcolor="#eb9f69"] ;
7 -> 8 ;
9 [label="gender <= 0.5\ngini = 0.5\nsamples = 2\nvalue = [1, 1]\nclass = Not purchased", fillcolor="#ffffff"] ;
8 -> 9 ;
10 [label="gini = 0.0\nsamples = 1\nvalue = [1, 0]\nclass = Not purchased", fillcolor="#e58139"] ;
9 -> 10 ;
11 [label="gini = 0.0\nsamples = 1\nvalue = [0, 1]\nclass = Purchased", fillcolor="#399de5"] ;
9 -> 11 ;
12 [label="age <= 42.5\ngini = 0.305\nsamples = 96\nvalue = [78, 18]\nclass = Not purchased", fillcolor="#eb9e67"] ;
8 -> 12 ;
13 [label="annual_salary <= 77250.0\ngini = 0.288\nsamples = 86\nvalue = [71, 15]\nclass = Not purchased", fillcolor="#ea9c63"] ;
12 -> 13 ;
14 [label="annual_salary <= 73250.0\ngini = 0.237\nsamples = 51\nvalue = [44, 7]\nclass = Not purchased", fillcolor="#e99558"] ;
13 -> 14 ;
15 [label="gender <= 0.5\ngini = 0.33\nsamples = 24\nvalue = [19, 5]\nclass = Not purchased", fillcolor="#eca26d"] ;
14 -> 15 ;
16 [label="gini = 0.0\nsamples = 11\nvalue = [11, 0]\nclass = Not purchased", fillcolor="#e58139"] ;
15 -> 16 ;
17 [label="age <= 39.5\ngini = 0.473\nsamples = 13\nvalue = [8, 5]\nclass = Not purchased", fillcolor="#f5d0b5"] ;
15 -> 17 ;
18 [label="age <= 38.5\ngini = 0.245\nsamples = 7\nvalue = [6, 1]\nclass = Not purchased", fillcolor="#e9965a"] ;
17 -> 18 ;
19 [label="annual_salary <= 71250.0\ngini = 0.375\nsamples = 4\nvalue = [3, 1]\nclass = Not purchased", fillcolor="#eeab7b"] ;
18 -> 19 ;
20 [label="gini = 0.0\nsamples = 2\nvalue = [2, 0]\nclass = Not purchased", fillcolor="#e58139"] ;
19 -> 20 ;
21 [label="annual_salary <= 71750.0\ngini = 0.5\nsamples = 2\nvalue = [1, 1]\nclass = Not purchased", fillcolor="#ffffff"] ;
19 -> 21 ;
22 [label="gini = 0.0\nsamples = 1\nvalue = [0, 1]\nclass = Purchased", fillcolor="#399de5"] ;
21 -> 22 ;
23 [label="gini = 0.0\nsamples = 1\nvalue = [1, 0]\nclass = Not purchased", fillcolor="#e58139"] ;
21 -> 23 ;
24 [label="gini = 0.0\nsamples = 3\nvalue = [3, 0]\nclass = Not purchased", fillcolor="#e58139"] ;
18 -> 24 ;
25 [label="age <= 41.5\ngini = 0.444\nsamples = 6\nvalue = [2, 4]\nclass = Purchased", fillcolor="#9ccef2"] ;
17 -> 25 ;
26 [label="annual_salary <= 71500.0\ngini = 0.48\nsamples = 5\nvalue = [2, 3]\nclass = Purchased", fillcolor="#bddef6"] ;
25 -> 26 ;
27 [label="gini = 0.0\nsamples = 1\nvalue = [0, 1]\nclass = Purchased", fillcolor="#399de5"] ;
26 -> 27 ;
28 [label="annual_salary <= 72250.0\ngini = 0.5\nsamples = 4\nvalue = [2, 2]\nclass = Not purchased", fillcolor="#ffffff"] ;
26 -> 28 ;
29 [label="gini = 0.0\nsamples = 1\nvalue = [1, 0]\nclass = Not purchased", fillcolor="#e58139"] ;
28 -> 29 ;
30 [label="age <= 40.5\ngini = 0.444\nsamples = 3\nvalue = [1, 2]\nclass = Purchased", fillcolor="#9ccef2"] ;
28 -> 30 ;
31 [label="gini = 0.5\nsamples = 2\nvalue = [1, 1]\nclass = Not purchased", fillcolor="#ffffff"] ;
30 -> 31 ;
32 [label="gini = 0.0\nsamples = 1\nvalue = [0, 1]\nclass = Purchased", fillcolor="#399de5"] ;
30 -> 32 ;
33 [label="gini = 0.0\nsamples = 1\nvalue = [0, 1]\nclass = Purchased", fillcolor="#399de5"] ;
25 -> 33 ;
34 [label="gender <= 0.5\ngini = 0.137\nsamples = 27\nvalue = [25, 2]\nclass = Not purchased", fillcolor="#e78b49"] ;
14 -> 34 ;
35 [label="age <= 40.5\ngini = 0.26\nsamples = 13\nvalue = [11, 2]\nclass = Not purchased", fillcolor="#ea985d"] ;
34 -> 35 ;
36 [label="annual_salary <= 74750.0\ngini = 0.444\nsamples = 6\nvalue = [4, 2]\nclass = Not purchased", fillcolor="#f2c09c"] ;
35 -> 36 ;
37 [label="gini = 0.0\nsamples = 2\nvalue = [2, 0]\nclass = Not purchased", fillcolor="#e58139"] ;
36 -> 37 ;
38 [label="age <= 38.0\ngini = 0.5\nsamples = 4\nvalue = [2, 2]\nclass = Not purchased", fillcolor="#ffffff"] ;
36 -> 38 ;
39 [label="gini = 0.0\nsamples = 1\nvalue = [1, 0]\nclass = Not purchased", fillcolor="#e58139"] ;
38 -> 39 ;
40 [label="annual_salary <= 75750.0\ngini = 0.444\nsamples = 3\nvalue = [1, 2]\nclass = Purchased", fillcolor="#9ccef2"] ;
38 -> 40 ;
41 [label="age <= 39.5\ngini = 0.5\nsamples = 2\nvalue = [1, 1]\nclass = Not purchased", fillcolor="#ffffff"] ;
40 -> 41 ;
42 [label="gini = 0.0\nsamples = 1\nvalue = [0, 1]\nclass = Purchased", fillcolor="#399de5"] ;
41 -> 42 ;
43 [label="gini = 0.0\nsamples = 1\nvalue = [1, 0]\nclass = Not purchased", fillcolor="#e58139"] ;
41 -> 43 ;
44 [label="gini = 0.0\nsamples = 1\nvalue = [0, 1]\nclass = Purchased", fillcolor="#399de5"] ;
40 -> 44 ;
45 [label="gini = 0.0\nsamples = 7\nvalue = [7, 0]\nclass = Not purchased", fillcolor="#e58139"] ;
35 -> 45 ;
46 [label="gini = 0.0\nsamples = 14\nvalue = [14, 0]\nclass = Not purchased", fillcolor="#e58139"] ;
34 -> 46 ;
47 [label="age <= 37.5\ngini = 0.353\nsamples = 35\nvalue = [27, 8]\nclass = Not purchased", fillcolor="#eda674"] ;
13 -> 47 ;
48 [label="annual_salary <= 79500.0\ngini = 0.5\nsamples = 4\nvalue = [2, 2]\nclass = Not purchased", fillcolor="#ffffff"] ;
47 -> 48 ;
49 [label="gini = 0.0\nsamples = 2\nvalue = [0, 2]\nclass = Purchased", fillcolor="#399de5"] ;
48 -> 49 ;
50 [label="gini = 0.0\nsamples = 2\nvalue = [2, 0]\nclass = Not purchased", fillcolor="#e58139"] ;
48 -> 50 ;
51 [label="annual_salary <= 79250.0\ngini = 0.312\nsamples = 31\nvalue = [25, 6]\nclass = Not purchased", fillcolor="#eb9f69"] ;
47 -> 51 ;
52 [label="age <= 41.5\ngini = 0.198\nsamples = 9\nvalue = [8, 1]\nclass = Not purchased", fillcolor="#e89152"] ;
51 -> 52 ;
53 [label="gini = 0.0\nsamples = 7\nvalue = [7, 0]\nclass = Not purchased", fillcolor="#e58139"] ;
52 -> 53 ;
54 [label="annual_salary <= 78250.0\ngini = 0.5\nsamples = 2\nvalue = [1, 1]\nclass = Not purchased", fillcolor="#ffffff"] ;
52 -> 54 ;
55 [label="gini = 0.0\nsamples = 1\nvalue = [0, 1]\nclass = Purchased", fillcolor="#399de5"] ;
54 -> 55 ;
56 [label="gini = 0.0\nsamples = 1\nvalue = [1, 0]\nclass = Not purchased", fillcolor="#e58139"] ;
54 -> 56 ;
57 [label="annual_salary <= 81000.0\ngini = 0.351\nsamples = 22\nvalue = [17, 5]\nclass = Not purchased", fillcolor="#eda673"] ;
51 -> 57 ;
58 [label="age <= 40.5\ngini = 0.426\nsamples = 13\nvalue = [9, 4]\nclass = Not purchased", fillcolor="#f1b991"] ;
57 -> 58 ;
59 [label="annual_salary <= 80250.0\ngini = 0.49\nsamples = 7\nvalue = [4, 3]\nclass = Not purchased", fillcolor="#f8e0ce"] ;
58 -> 59 ;
60 [label="age <= 39.0\ngini = 0.375\nsamples = 4\nvalue = [3, 1]\nclass = Not purchased", fillcolor="#eeab7b"] ;
59 -> 60 ;
61 [label="annual_salary <= 79750.0\ngini = 0.444\nsamples = 3\nvalue = [2, 1]\nclass = Not purchased", fillcolor="#f2c09c"] ;
60 -> 61 ;
62 [label="gini = 0.5\nsamples = 2\nvalue = [1, 1]\nclass = Not purchased", fillcolor="#ffffff"] ;
61 -> 62 ;
63 [label="gini = 0.0\nsamples = 1\nvalue = [1, 0]\nclass = Not purchased", fillcolor="#e58139"] ;
61 -> 63 ;
64 [label="gini = 0.0\nsamples = 1\nvalue = [1, 0]\nclass = Not purchased", fillcolor="#e58139"] ;
60 -> 64 ;
65 [label="gender <= 0.5\ngini = 0.444\nsamples = 3\nvalue = [1, 2]\nclass = Purchased", fillcolor="#9ccef2"] ;
59 -> 65 ;
66 [label="gini = 0.5\nsamples = 2\nvalue = [1, 1]\nclass = Not purchased", fillcolor="#ffffff"] ;
65 -> 66 ;
67 [label="gini = 0.0\nsamples = 1\nvalue = [0, 1]\nclass = Purchased", fillcolor="#399de5"] ;
65 -> 67 ;
68 [label="gender <= 0.5\ngini = 0.278\nsamples = 6\nvalue = [5, 1]\nclass = Not purchased", fillcolor="#ea9a61"] ;
58 -> 68 ;
69 [label="age <= 41.5\ngini = 0.5\nsamples = 2\nvalue = [1, 1]\nclass = Not purchased", fillcolor="#ffffff"] ;
68 -> 69 ;
70 [label="gini = 0.0\nsamples = 1\nvalue = [1, 0]\nclass = Not purchased", fillcolor="#e58139"] ;
69 -> 70 ;
71 [label="gini = 0.0\nsamples = 1\nvalue = [0, 1]\nclass = Purchased", fillcolor="#399de5"] ;
69 -> 71 ;
72 [label="gini = 0.0\nsamples = 4\nvalue = [4, 0]\nclass = Not purchased", fillcolor="#e58139"] ;
68 -> 72 ;
73 [label="gender <= 0.5\ngini = 0.198\nsamples = 9\nvalue = [8, 1]\nclass = Not purchased", fillcolor="#e89152"] ;
57 -> 73 ;
74 [label="gini = 0.0\nsamples = 7\nvalue = [7, 0]\nclass = Not purchased", fillcolor="#e58139"] ;
73 -> 74 ;
75 [label="age <= 39.0\ngini = 0.5\nsamples = 2\nvalue = [1, 1]\nclass = Not purchased", fillcolor="#ffffff"] ;
73 -> 75 ;
76 [label="gini = 0.0\nsamples = 1\nvalue = [1, 0]\nclass = Not purchased", fillcolor="#e58139"] ;
75 -> 76 ;
77 [label="gini = 0.0\nsamples = 1\nvalue = [0, 1]\nclass = Purchased", fillcolor="#399de5"] ;
75 -> 77 ;
78 [label="annual_salary <= 75500.0\ngini = 0.42\nsamples = 10\nvalue = [7, 3]\nclass = Not purchased", fillcolor="#f0b78e"] ;
12 -> 78 ;
79 [label="gender <= 0.5\ngini = 0.5\nsamples = 4\nvalue = [2, 2]\nclass = Not purchased", fillcolor="#ffffff"] ;
78 -> 79 ;
80 [label="gini = 0.0\nsamples = 2\nvalue = [2, 0]\nclass = Not purchased", fillcolor="#e58139"] ;
79 -> 80 ;
81 [label="gini = 0.0\nsamples = 2\nvalue = [0, 2]\nclass = Purchased", fillcolor="#399de5"] ;
79 -> 81 ;
82 [label="annual_salary <= 81000.0\ngini = 0.278\nsamples = 6\nvalue = [5, 1]\nclass = Not purchased", fillcolor="#ea9a61"] ;
78 -> 82 ;
83 [label="gini = 0.0\nsamples = 4\nvalue = [4, 0]\nclass = Not purchased", fillcolor="#e58139"] ;
82 -> 83 ;
84 [label="gender <= 0.5\ngini = 0.5\nsamples = 2\nvalue = [1, 1]\nclass = Not purchased", fillcolor="#ffffff"] ;
82 -> 84 ;
85 [label="gini = 0.0\nsamples = 1\nvalue = [0, 1]\nclass = Purchased", fillcolor="#399de5"] ;
84 -> 85 ;
86 [label="gini = 0.0\nsamples = 1\nvalue = [1, 0]\nclass = Not purchased", fillcolor="#e58139"] ;
84 -> 86 ;
87 [label="gini = 0.0\nsamples = 7\nvalue = [7, 0]\nclass = Not purchased", fillcolor="#e58139"] ;
7 -> 87 ;
88 [label="gini = 0.0\nsamples = 4\nvalue = [0, 4]\nclass = Purchased", fillcolor="#399de5"] ;
6 -> 88 ;
89 [label="annual_salary <= 119750.0\ngini = 0.268\nsamples = 119\nvalue = [19, 100]\nclass = Purchased", fillcolor="#5fb0ea"] ;
1 -> 89 ;
90 [label="annual_salary <= 109000.0\ngini = 0.398\nsamples = 62\nvalue = [17, 45]\nclass = Purchased", fillcolor="#84c2ef"] ;
89 -> 90 ;
91 [label="age <= 26.5\ngini = 0.165\nsamples = 33\nvalue = [3, 30]\nclass = Purchased", fillcolor="#4da7e8"] ;
90 -> 91 ;
92 [label="gini = 0.0\nsamples = 1\nvalue = [1, 0]\nclass = Not purchased", fillcolor="#e58139"] ;
91 -> 92 ;
93 [label="age <= 35.5\ngini = 0.117\nsamples = 32\nvalue = [2, 30]\nclass = Purchased", fillcolor="#46a4e7"] ;
91 -> 93 ;
94 [label="annual_salary <= 93750.0\ngini = 0.32\nsamples = 10\nvalue = [2, 8]\nclass = Purchased", fillcolor="#6ab6ec"] ;
93 -> 94 ;
95 [label="annual_salary <= 91250.0\ngini = 0.5\nsamples = 2\nvalue = [1, 1]\nclass = Not purchased", fillcolor="#ffffff"] ;
94 -> 95 ;
96 [label="gini = 0.0\nsamples = 1\nvalue = [0, 1]\nclass = Purchased", fillcolor="#399de5"] ;
95 -> 96 ;
97 [label="gini = 0.0\nsamples = 1\nvalue = [1, 0]\nclass = Not purchased", fillcolor="#e58139"] ;
95 -> 97 ;
98 [label="age <= 34.0\ngini = 0.219\nsamples = 8\nvalue = [1, 7]\nclass = Purchased", fillcolor="#55abe9"] ;
94 -> 98 ;
99 [label="gini = 0.0\nsamples = 6\nvalue = [0, 6]\nclass = Purchased", fillcolor="#399de5"] ;
98 -> 99 ;
100 [label="gender <= 0.5\ngini = 0.5\nsamples = 2\nvalue = [1, 1]\nclass = Not purchased", fillcolor="#ffffff"] ;
98 -> 100 ;
101 [label="gini = 0.0\nsamples = 1\nvalue = [0, 1]\nclass = Purchased", fillcolor="#399de5"] ;
100 -> 101 ;
102 [label="gini = 0.0\nsamples = 1\nvalue = [1, 0]\nclass = Not purchased", fillcolor="#e58139"] ;
100 -> 102 ;
103 [label="gini = 0.0\nsamples = 22\nvalue = [0, 22]\nclass = Purchased", fillcolor="#399de5"] ;
93 -> 103 ;
104 [label="age <= 42.0\ngini = 0.499\nsamples = 29\nvalue = [14, 15]\nclass = Purchased", fillcolor="#f2f8fd"] ;
90 -> 104 ;
105 [label="age <= 30.5\ngini = 0.493\nsamples = 25\nvalue = [14, 11]\nclass = Not purchased", fillcolor="#f9e4d5"] ;
104 -> 105 ;
106 [label="gini = 0.0\nsamples = 3\nvalue = [3, 0]\nclass = Not purchased", fillcolor="#e58139"] ;
105 -> 106 ;
107 [label="annual_salary <= 117750.0\ngini = 0.5\nsamples = 22\nvalue = [11, 11]\nclass = Not purchased", fillcolor="#ffffff"] ;
105 -> 107 ;
108 [label="age <= 31.5\ngini = 0.469\nsamples = 16\nvalue = [10, 6]\nclass = Not purchased", fillcolor="#f5cdb0"] ;
107 -> 108 ;
109 [label="gini = 0.0\nsamples = 1\nvalue = [1, 0]\nclass = Not purchased", fillcolor="#e58139"] ;
108 -> 109 ;
110 [label="annual_salary <= 110750.0\ngini = 0.48\nsamples = 15\nvalue = [9, 6]\nclass = Not purchased", fillcolor="#f6d5bd"] ;
108 -> 110 ;
111 [label="gini = 0.0\nsamples = 1\nvalue = [1, 0]\nclass = Not purchased", fillcolor="#e58139"] ;
110 -> 111 ;
112 [label="age <= 34.5\ngini = 0.49\nsamples = 14\nvalue = [8, 6]\nclass = Not purchased", fillcolor="#f8e0ce"] ;
110 -> 112 ;
113 [label="annual_salary <= 112500.0\ngini = 0.444\nsamples = 6\nvalue = [4, 2]\nclass = Not purchased", fillcolor="#f2c09c"] ;
112 -> 113 ;
114 [label="gini = 0.0\nsamples = 1\nvalue = [0, 1]\nclass = Purchased", fillcolor="#399de5"] ;
113 -> 114 ;
115 [label="age <= 32.5\ngini = 0.32\nsamples = 5\nvalue = [4, 1]\nclass = Not purchased", fillcolor="#eca06a"] ;
113 -> 115 ;
116 [label="gini = 0.5\nsamples = 2\nvalue = [1, 1]\nclass = Not purchased", fillcolor="#ffffff"] ;
115 -> 116 ;
117 [label="gini = 0.0\nsamples = 3\nvalue = [3, 0]\nclass = Not purchased", fillcolor="#e58139"] ;
115 -> 117 ;
118 [label="annual_salary <= 112500.0\ngini = 0.5\nsamples = 8\nvalue = [4, 4]\nclass = Not purchased", fillcolor="#ffffff"] ;
112 -> 118 ;
119 [label="gini = 0.0\nsamples = 1\nvalue = [1, 0]\nclass = Not purchased", fillcolor="#e58139"] ;
118 -> 119 ;
120 [label="annual_salary <= 116000.0\ngini = 0.49\nsamples = 7\nvalue = [3, 4]\nclass = Purchased", fillcolor="#cee6f8"] ;
118 -> 120 ;
121 [label="age <= 38.5\ngini = 0.444\nsamples = 6\nvalue = [2, 4]\nclass = Purchased", fillcolor="#9ccef2"] ;
120 -> 121 ;
122 [label="gini = 0.0\nsamples = 2\nvalue = [0, 2]\nclass = Purchased", fillcolor="#399de5"] ;
121 -> 122 ;
123 [label="annual_salary <= 114000.0\ngini = 0.5\nsamples = 4\nvalue = [2, 2]\nclass = Not purchased", fillcolor="#ffffff"] ;
121 -> 123 ;
124 [label="gini = 0.0\nsamples = 1\nvalue = [1, 0]\nclass = Not purchased", fillcolor="#e58139"] ;
123 -> 124 ;
125 [label="age <= 40.0\ngini = 0.444\nsamples = 3\nvalue = [1, 2]\nclass = Purchased", fillcolor="#9ccef2"] ;
123 -> 125 ;
126 [label="gini = 0.0\nsamples = 1\nvalue = [0, 1]\nclass = Purchased", fillcolor="#399de5"] ;
125 -> 126 ;
127 [label="annual_salary <= 115000.0\ngini = 0.5\nsamples = 2\nvalue = [1, 1]\nclass = Not purchased", fillcolor="#ffffff"] ;
125 -> 127 ;
128 [label="gini = 0.0\nsamples = 1\nvalue = [1, 0]\nclass = Not purchased", fillcolor="#e58139"] ;
127 -> 128 ;
129 [label="gini = 0.0\nsamples = 1\nvalue = [0, 1]\nclass = Purchased", fillcolor="#399de5"] ;
127 -> 129 ;
130 [label="gini = 0.0\nsamples = 1\nvalue = [1, 0]\nclass = Not purchased", fillcolor="#e58139"] ;
120 -> 130 ;
131 [label="age <= 32.5\ngini = 0.278\nsamples = 6\nvalue = [1, 5]\nclass = Purchased", fillcolor="#61b1ea"] ;
107 -> 131 ;
132 [label="gini = 0.0\nsamples = 2\nvalue = [0, 2]\nclass = Purchased", fillcolor="#399de5"] ;
131 -> 132 ;
133 [label="gender <= 0.5\ngini = 0.375\nsamples = 4\nvalue = [1, 3]\nclass = Purchased", fillcolor="#7bbeee"] ;
131 -> 133 ;
134 [label="gini = 0.5\nsamples = 2\nvalue = [1, 1]\nclass = Not purchased", fillcolor="#ffffff"] ;
133 -> 134 ;
135 [label="gini = 0.0\nsamples = 2\nvalue = [0, 2]\nclass = Purchased", fillcolor="#399de5"] ;
133 -> 135 ;
136 [label="gini = 0.0\nsamples = 4\nvalue = [0, 4]\nclass = Purchased", fillcolor="#399de5"] ;
104 -> 136 ;
137 [label="age <= 42.5\ngini = 0.068\nsamples = 57\nvalue = [2, 55]\nclass = Purchased", fillcolor="#40a1e6"] ;
89 -> 137 ;
138 [label="gini = 0.0\nsamples = 50\nvalue = [0, 50]\nclass = Purchased", fillcolor="#399de5"] ;
137 -> 138 ;
139 [label="annual_salary <= 136750.0\ngini = 0.408\nsamples = 7\nvalue = [2, 5]\nclass = Purchased", fillcolor="#88c4ef"] ;
137 -> 139 ;
140 [label="gender <= 0.5\ngini = 0.5\nsamples = 4\nvalue = [2, 2]\nclass = Not purchased", fillcolor="#ffffff"] ;
139 -> 140 ;
141 [label="gini = 0.0\nsamples = 2\nvalue = [2, 0]\nclass = Not purchased", fillcolor="#e58139"] ;
140 -> 141 ;
142 [label="gini = 0.0\nsamples = 2\nvalue = [0, 2]\nclass = Purchased", fillcolor="#399de5"] ;
140 -> 142 ;
143 [label="gini = 0.0\nsamples = 3\nvalue = [0, 3]\nclass = Purchased", fillcolor="#399de5"] ;
139 -> 143 ;
144 [label="age <= 47.5\ngini = 0.282\nsamples = 336\nvalue = [57, 279]\nclass = Purchased", fillcolor="#61b1ea"] ;
0 -> 144 [labeldistance=2.5, labelangle=-45, headlabel="False"] ;
145 [label="annual_salary <= 37250.0\ngini = 0.45\nsamples = 73\nvalue = [25, 48]\nclass = Purchased", fillcolor="#a0d0f3"] ;
144 -> 145 ;
146 [label="gender <= 0.5\ngini = 0.172\nsamples = 21\nvalue = [2, 19]\nclass = Purchased", fillcolor="#4ea7e8"] ;
145 -> 146 ;
147 [label="annual_salary <= 26750.0\ngini = 0.408\nsamples = 7\nvalue = [2, 5]\nclass = Purchased", fillcolor="#88c4ef"] ;
146 -> 147 ;
148 [label="age <= 45.5\ngini = 0.5\nsamples = 4\nvalue = [2, 2]\nclass = Not purchased", fillcolor="#ffffff"] ;
147 -> 148 ;
149 [label="gini = 0.0\nsamples = 1\nvalue = [0, 1]\nclass = Purchased", fillcolor="#399de5"] ;
148 -> 149 ;
150 [label="annual_salary <= 22750.0\ngini = 0.444\nsamples = 3\nvalue = [2, 1]\nclass = Not purchased", fillcolor="#f2c09c"] ;
148 -> 150 ;
151 [label="gini = 0.0\nsamples = 1\nvalue = [1, 0]\nclass = Not purchased", fillcolor="#e58139"] ;
150 -> 151 ;
152 [label="age <= 46.5\ngini = 0.5\nsamples = 2\nvalue = [1, 1]\nclass = Not purchased", fillcolor="#ffffff"] ;
150 -> 152 ;
153 [label="gini = 0.0\nsamples = 1\nvalue = [0, 1]\nclass = Purchased", fillcolor="#399de5"] ;
152 -> 153 ;
154 [label="gini = 0.0\nsamples = 1\nvalue = [1, 0]\nclass = Not purchased", fillcolor="#e58139"] ;
152 -> 154 ;
155 [label="gini = 0.0\nsamples = 3\nvalue = [0, 3]\nclass = Purchased", fillcolor="#399de5"] ;
147 -> 155 ;
156 [label="gini = 0.0\nsamples = 14\nvalue = [0, 14]\nclass = Purchased", fillcolor="#399de5"] ;
146 -> 156 ;
157 [label="annual_salary <= 101250.0\ngini = 0.493\nsamples = 52\nvalue = [23, 29]\nclass = Purchased", fillcolor="#d6ebfa"] ;
145 -> 157 ;
158 [label="annual_salary <= 53250.0\ngini = 0.475\nsamples = 36\nvalue = [22, 14]\nclass = Not purchased", fillcolor="#f6d1b7"] ;
157 -> 158 ;
159 [label="annual_salary <= 48000.0\ngini = 0.463\nsamples = 11\nvalue = [4, 7]\nclass = Purchased", fillcolor="#aad5f4"] ;
158 -> 159 ;
160 [label="age <= 46.5\ngini = 0.5\nsamples = 8\nvalue = [4, 4]\nclass = Not purchased", fillcolor="#ffffff"] ;
159 -> 160 ;
161 [label="annual_salary <= 40750.0\ngini = 0.375\nsamples = 4\nvalue = [1, 3]\nclass = Purchased", fillcolor="#7bbeee"] ;
160 -> 161 ;
162 [label="gini = 0.0\nsamples = 1\nvalue = [1, 0]\nclass = Not purchased", fillcolor="#e58139"] ;
161 -> 162 ;
163 [label="gini = 0.0\nsamples = 3\nvalue = [0, 3]\nclass = Purchased", fillcolor="#399de5"] ;
161 -> 163 ;
164 [label="annual_salary <= 42750.0\ngini = 0.375\nsamples = 4\nvalue = [3, 1]\nclass = Not purchased", fillcolor="#eeab7b"] ;
160 -> 164 ;
165 [label="annual_salary <= 42000.0\ngini = 0.5\nsamples = 2\nvalue = [1, 1]\nclass = Not purchased", fillcolor="#ffffff"] ;
164 -> 165 ;
166 [label="gini = 0.0\nsamples = 1\nvalue = [1, 0]\nclass = Not purchased", fillcolor="#e58139"] ;
165 -> 166 ;
167 [label="gini = 0.0\nsamples = 1\nvalue = [0, 1]\nclass = Purchased", fillcolor="#399de5"] ;
165 -> 167 ;
168 [label="gini = 0.0\nsamples = 2\nvalue = [2, 0]\nclass = Not purchased", fillcolor="#e58139"] ;
164 -> 168 ;
169 [label="gini = 0.0\nsamples = 3\nvalue = [0, 3]\nclass = Purchased", fillcolor="#399de5"] ;
159 -> 169 ;
170 [label="annual_salary <= 74750.0\ngini = 0.403\nsamples = 25\nvalue = [18, 7]\nclass = Not purchased", fillcolor="#efb286"] ;
158 -> 170 ;
171 [label="gini = 0.0\nsamples = 9\nvalue = [9, 0]\nclass = Not purchased", fillcolor="#e58139"] ;
170 -> 171 ;
172 [label="gender <= 0.5\ngini = 0.492\nsamples = 16\nvalue = [9, 7]\nclass = Not purchased", fillcolor="#f9e3d3"] ;
170 -> 172 ;
173 [label="age <= 45.5\ngini = 0.346\nsamples = 9\nvalue = [7, 2]\nclass = Not purchased", fillcolor="#eca572"] ;
172 -> 173 ;
174 [label="annual_salary <= 82000.0\ngini = 0.5\nsamples = 4\nvalue = [2, 2]\nclass = Not purchased", fillcolor="#ffffff"] ;
173 -> 174 ;
175 [label="gini = 0.0\nsamples = 2\nvalue = [2, 0]\nclass = Not purchased", fillcolor="#e58139"] ;
174 -> 175 ;
176 [label="gini = 0.0\nsamples = 2\nvalue = [0, 2]\nclass = Purchased", fillcolor="#399de5"] ;
174 -> 176 ;
177 [label="gini = 0.0\nsamples = 5\nvalue = [5, 0]\nclass = Not purchased", fillcolor="#e58139"] ;
173 -> 177 ;
178 [label="age <= 46.5\ngini = 0.408\nsamples = 7\nvalue = [2, 5]\nclass = Purchased", fillcolor="#88c4ef"] ;
172 -> 178 ;
179 [label="annual_salary <= 77250.0\ngini = 0.48\nsamples = 5\nvalue = [2, 3]\nclass = Purchased", fillcolor="#bddef6"] ;
178 -> 179 ;
180 [label="gini = 0.0\nsamples = 1\nvalue = [0, 1]\nclass = Purchased", fillcolor="#399de5"] ;
179 -> 180 ;
181 [label="age <= 45.5\ngini = 0.5\nsamples = 4\nvalue = [2, 2]\nclass = Not purchased", fillcolor="#ffffff"] ;
179 -> 181 ;
182 [label="gini = 0.0\nsamples = 1\nvalue = [1, 0]\nclass = Not purchased", fillcolor="#e58139"] ;
181 -> 182 ;
183 [label="annual_salary <= 79750.0\ngini = 0.444\nsamples = 3\nvalue = [1, 2]\nclass = Purchased", fillcolor="#9ccef2"] ;
181 -> 183 ;
184 [label="gini = 0.0\nsamples = 1\nvalue = [0, 1]\nclass = Purchased", fillcolor="#399de5"] ;
183 -> 184 ;
185 [label="annual_salary <= 84250.0\ngini = 0.5\nsamples = 2\nvalue = [1, 1]\nclass = Not purchased", fillcolor="#ffffff"] ;
183 -> 185 ;
186 [label="gini = 0.0\nsamples = 1\nvalue = [1, 0]\nclass = Not purchased", fillcolor="#e58139"] ;
185 -> 186 ;
187 [label="gini = 0.0\nsamples = 1\nvalue = [0, 1]\nclass = Purchased", fillcolor="#399de5"] ;
185 -> 187 ;
188 [label="gini = 0.0\nsamples = 2\nvalue = [0, 2]\nclass = Purchased", fillcolor="#399de5"] ;
178 -> 188 ;
189 [label="annual_salary <= 134000.0\ngini = 0.117\nsamples = 16\nvalue = [1, 15]\nclass = Purchased", fillcolor="#46a4e7"] ;
157 -> 189 ;
190 [label="gini = 0.0\nsamples = 11\nvalue = [0, 11]\nclass = Purchased", fillcolor="#399de5"] ;
189 -> 190 ;
191 [label="annual_salary <= 138000.0\ngini = 0.32\nsamples = 5\nvalue = [1, 4]\nclass = Purchased", fillcolor="#6ab6ec"] ;
189 -> 191 ;
192 [label="gini = 0.0\nsamples = 1\nvalue = [1, 0]\nclass = Not purchased", fillcolor="#e58139"] ;
191 -> 192 ;
193 [label="gini = 0.0\nsamples = 4\nvalue = [0, 4]\nclass = Purchased", fillcolor="#399de5"] ;
191 -> 193 ;
194 [label="annual_salary <= 41750.0\ngini = 0.214\nsamples = 263\nvalue = [32, 231]\nclass = Purchased", fillcolor="#54abe9"] ;
144 -> 194 ;
195 [label="annual_salary <= 25000.0\ngini = 0.026\nsamples = 77\nvalue = [1, 76]\nclass = Purchased", fillcolor="#3c9ee5"] ;
194 -> 195 ;
196 [label="age <= 49.5\ngini = 0.142\nsamples = 13\nvalue = [1, 12]\nclass = Purchased", fillcolor="#49a5e7"] ;
195 -> 196 ;
197 [label="gender <= 0.5\ngini = 0.444\nsamples = 3\nvalue = [1, 2]\nclass = Purchased", fillcolor="#9ccef2"] ;
196 -> 197 ;
198 [label="gini = 0.0\nsamples = 1\nvalue = [1, 0]\nclass = Not purchased", fillcolor="#e58139"] ;
197 -> 198 ;
199 [label="gini = 0.0\nsamples = 2\nvalue = [0, 2]\nclass = Purchased", fillcolor="#399de5"] ;
197 -> 199 ;
200 [label="gini = 0.0\nsamples = 10\nvalue = [0, 10]\nclass = Purchased", fillcolor="#399de5"] ;
196 -> 200 ;
201 [label="gini = 0.0\nsamples = 64\nvalue = [0, 64]\nclass = Purchased", fillcolor="#399de5"] ;
195 -> 201 ;
202 [label="annual_salary <= 85000.0\ngini = 0.278\nsamples = 186\nvalue = [31, 155]\nclass = Purchased", fillcolor="#61b1ea"] ;
194 -> 202 ;
203 [label="age <= 52.5\ngini = 0.427\nsamples = 68\nvalue = [21, 47]\nclass = Purchased", fillcolor="#91c9f1"] ;
202 -> 203 ;
204 [label="annual_salary <= 43750.0\ngini = 0.494\nsamples = 27\nvalue = [15, 12]\nclass = Not purchased", fillcolor="#fae6d7"] ;
203 -> 204 ;
205 [label="gini = 0.0\nsamples = 2\nvalue = [0, 2]\nclass = Purchased", fillcolor="#399de5"] ;
204 -> 205 ;
206 [label="annual_salary <= 46500.0\ngini = 0.48\nsamples = 25\nvalue = [15, 10]\nclass = Not purchased", fillcolor="#f6d5bd"] ;
204 -> 206 ;
207 [label="gini = 0.0\nsamples = 4\nvalue = [4, 0]\nclass = Not purchased", fillcolor="#e58139"] ;
206 -> 207 ;
208 [label="annual_salary <= 59250.0\ngini = 0.499\nsamples = 21\nvalue = [11, 10]\nclass = Not purchased", fillcolor="#fdf4ed"] ;
206 -> 208 ;
209 [label="annual_salary <= 50000.0\ngini = 0.375\nsamples = 8\nvalue = [2, 6]\nclass = Purchased", fillcolor="#7bbeee"] ;
208 -> 209 ;
210 [label="annual_salary <= 48000.0\ngini = 0.444\nsamples = 3\nvalue = [2, 1]\nclass = Not purchased", fillcolor="#f2c09c"] ;
209 -> 210 ;
211 [label="gini = 0.0\nsamples = 1\nvalue = [0, 1]\nclass = Purchased", fillcolor="#399de5"] ;
210 -> 211 ;
212 [label="gini = 0.0\nsamples = 2\nvalue = [2, 0]\nclass = Not purchased", fillcolor="#e58139"] ;
210 -> 212 ;
213 [label="gini = 0.0\nsamples = 5\nvalue = [0, 5]\nclass = Purchased", fillcolor="#399de5"] ;
209 -> 213 ;
214 [label="annual_salary <= 70750.0\ngini = 0.426\nsamples = 13\nvalue = [9, 4]\nclass = Not purchased", fillcolor="#f1b991"] ;
208 -> 214 ;
215 [label="gini = 0.0\nsamples = 3\nvalue = [3, 0]\nclass = Not purchased", fillcolor="#e58139"] ;
214 -> 215 ;
216 [label="gender <= 0.5\ngini = 0.48\nsamples = 10\nvalue = [6, 4]\nclass = Not purchased", fillcolor="#f6d5bd"] ;
214 -> 216 ;
217 [label="gini = 0.0\nsamples = 2\nvalue = [2, 0]\nclass = Not purchased", fillcolor="#e58139"] ;
216 -> 217 ;
218 [label="age <= 51.5\ngini = 0.5\nsamples = 8\nvalue = [4, 4]\nclass = Not purchased", fillcolor="#ffffff"] ;
216 -> 218 ;
219 [label="age <= 50.5\ngini = 0.49\nsamples = 7\nvalue = [3, 4]\nclass = Purchased", fillcolor="#cee6f8"] ;
218 -> 219 ;
220 [label="age <= 49.5\ngini = 0.5\nsamples = 6\nvalue = [3, 3]\nclass = Not purchased", fillcolor="#ffffff"] ;
219 -> 220 ;
221 [label="annual_salary <= 74750.0\ngini = 0.48\nsamples = 5\nvalue = [2, 3]\nclass = Purchased", fillcolor="#bddef6"] ;
220 -> 221 ;
222 [label="age <= 48.5\ngini = 0.5\nsamples = 2\nvalue = [1, 1]\nclass = Not purchased", fillcolor="#ffffff"] ;
221 -> 222 ;
223 [label="gini = 0.0\nsamples = 1\nvalue = [0, 1]\nclass = Purchased", fillcolor="#399de5"] ;
222 -> 223 ;
224 [label="gini = 0.0\nsamples = 1\nvalue = [1, 0]\nclass = Not purchased", fillcolor="#e58139"] ;
222 -> 224 ;
225 [label="age <= 48.5\ngini = 0.444\nsamples = 3\nvalue = [1, 2]\nclass = Purchased", fillcolor="#9ccef2"] ;
221 -> 225 ;
226 [label="gini = 0.0\nsamples = 1\nvalue = [1, 0]\nclass = Not purchased", fillcolor="#e58139"] ;
225 -> 226 ;
227 [label="gini = 0.0\nsamples = 2\nvalue = [0, 2]\nclass = Purchased", fillcolor="#399de5"] ;
225 -> 227 ;
228 [label="gini = 0.0\nsamples = 1\nvalue = [1, 0]\nclass = Not purchased", fillcolor="#e58139"] ;
220 -> 228 ;
229 [label="gini = 0.0\nsamples = 1\nvalue = [0, 1]\nclass = Purchased", fillcolor="#399de5"] ;
219 -> 229 ;
230 [label="gini = 0.0\nsamples = 1\nvalue = [1, 0]\nclass = Not purchased", fillcolor="#e58139"] ;
218 -> 230 ;
231 [label="gender <= 0.5\ngini = 0.25\nsamples = 41\nvalue = [6, 35]\nclass = Purchased", fillcolor="#5baee9"] ;
203 -> 231 ;
232 [label="annual_salary <= 45250.0\ngini = 0.444\nsamples = 18\nvalue = [6, 12]\nclass = Purchased", fillcolor="#9ccef2"] ;
231 -> 232 ;
233 [label="gini = 0.0\nsamples = 3\nvalue = [3, 0]\nclass = Not purchased", fillcolor="#e58139"] ;
232 -> 233 ;
234 [label="annual_salary <= 82500.0\ngini = 0.32\nsamples = 15\nvalue = [3, 12]\nclass = Purchased", fillcolor="#6ab6ec"] ;
232 -> 234 ;
235 [label="age <= 55.5\ngini = 0.165\nsamples = 11\nvalue = [1, 10]\nclass = Purchased", fillcolor="#4da7e8"] ;
234 -> 235 ;
236 [label="annual_salary <= 64250.0\ngini = 0.5\nsamples = 2\nvalue = [1, 1]\nclass = Not purchased", fillcolor="#ffffff"] ;
235 -> 236 ;
237 [label="gini = 0.0\nsamples = 1\nvalue = [1, 0]\nclass = Not purchased", fillcolor="#e58139"] ;
236 -> 237 ;
238 [label="gini = 0.0\nsamples = 1\nvalue = [0, 1]\nclass = Purchased", fillcolor="#399de5"] ;
236 -> 238 ;
239 [label="gini = 0.0\nsamples = 9\nvalue = [0, 9]\nclass = Purchased", fillcolor="#399de5"] ;
235 -> 239 ;
240 [label="age <= 57.5\ngini = 0.5\nsamples = 4\nvalue = [2, 2]\nclass = Not purchased", fillcolor="#ffffff"] ;
234 -> 240 ;
241 [label="gini = 0.0\nsamples = 2\nvalue = [0, 2]\nclass = Purchased", fillcolor="#399de5"] ;
240 -> 241 ;
242 [label="gini = 0.0\nsamples = 2\nvalue = [2, 0]\nclass = Not purchased", fillcolor="#e58139"] ;
240 -> 242 ;
243 [label="gini = 0.0\nsamples = 23\nvalue = [0, 23]\nclass = Purchased", fillcolor="#399de5"] ;
231 -> 243 ;
244 [label="age <= 55.5\ngini = 0.155\nsamples = 118\nvalue = [10, 108]\nclass = Purchased", fillcolor="#4ba6e7"] ;
202 -> 244 ;
245 [label="annual_salary <= 111750.0\ngini = 0.229\nsamples = 76\nvalue = [10, 66]\nclass = Purchased", fillcolor="#57ace9"] ;
244 -> 245 ;
246 [label="age <= 49.5\ngini = 0.059\nsamples = 33\nvalue = [1, 32]\nclass = Purchased", fillcolor="#3fa0e6"] ;
245 -> 246 ;
247 [label="annual_salary <= 98000.0\ngini = 0.165\nsamples = 11\nvalue = [1, 10]\nclass = Purchased", fillcolor="#4da7e8"] ;
246 -> 247 ;
248 [label="gini = 0.0\nsamples = 8\nvalue = [0, 8]\nclass = Purchased", fillcolor="#399de5"] ;
247 -> 248 ;
249 [label="annual_salary <= 102500.0\ngini = 0.444\nsamples = 3\nvalue = [1, 2]\nclass = Purchased", fillcolor="#9ccef2"] ;
247 -> 249 ;
250 [label="gini = 0.0\nsamples = 1\nvalue = [1, 0]\nclass = Not purchased", fillcolor="#e58139"] ;
249 -> 250 ;
251 [label="gini = 0.0\nsamples = 2\nvalue = [0, 2]\nclass = Purchased", fillcolor="#399de5"] ;
249 -> 251 ;
252 [label="gini = 0.0\nsamples = 22\nvalue = [0, 22]\nclass = Purchased", fillcolor="#399de5"] ;
246 -> 252 ;
253 [label="annual_salary <= 117750.0\ngini = 0.331\nsamples = 43\nvalue = [9, 34]\nclass = Purchased", fillcolor="#6db7ec"] ;
245 -> 253 ;
254 [label="age <= 51.0\ngini = 0.48\nsamples = 5\nvalue = [3, 2]\nclass = Not purchased", fillcolor="#f6d5bd"] ;
253 -> 254 ;
255 [label="gini = 0.0\nsamples = 2\nvalue = [0, 2]\nclass = Purchased", fillcolor="#399de5"] ;
254 -> 255 ;
256 [label="gini = 0.0\nsamples = 3\nvalue = [3, 0]\nclass = Not purchased", fillcolor="#e58139"] ;
254 -> 256 ;
257 [label="gender <= 0.5\ngini = 0.266\nsamples = 38\nvalue = [6, 32]\nclass = Purchased", fillcolor="#5eafea"] ;
253 -> 257 ;
258 [label="annual_salary <= 137250.0\ngini = 0.175\nsamples = 31\nvalue = [3, 28]\nclass = Purchased", fillcolor="#4ea8e8"] ;
257 -> 258 ;
259 [label="annual_salary <= 133750.0\ngini = 0.32\nsamples = 15\nvalue = [3, 12]\nclass = Purchased", fillcolor="#6ab6ec"] ;
258 -> 259 ;
260 [label="gini = 0.0\nsamples = 9\nvalue = [0, 9]\nclass = Purchased", fillcolor="#399de5"] ;
259 -> 260 ;
261 [label="age <= 50.0\ngini = 0.5\nsamples = 6\nvalue = [3, 3]\nclass = Not purchased", fillcolor="#ffffff"] ;
259 -> 261 ;
262 [label="gini = 0.0\nsamples = 2\nvalue = [0, 2]\nclass = Purchased", fillcolor="#399de5"] ;
261 -> 262 ;
263 [label="annual_salary <= 136000.0\ngini = 0.375\nsamples = 4\nvalue = [3, 1]\nclass = Not purchased", fillcolor="#eeab7b"] ;
261 -> 263 ;
264 [label="gini = 0.0\nsamples = 2\nvalue = [2, 0]\nclass = Not purchased", fillcolor="#e58139"] ;
263 -> 264 ;
265 [label="age <= 52.5\ngini = 0.5\nsamples = 2\nvalue = [1, 1]\nclass = Not purchased", fillcolor="#ffffff"] ;
263 -> 265 ;
266 [label="gini = 0.0\nsamples = 1\nvalue = [0, 1]\nclass = Purchased", fillcolor="#399de5"] ;
265 -> 266 ;
267 [label="gini = 0.0\nsamples = 1\nvalue = [1, 0]\nclass = Not purchased", fillcolor="#e58139"] ;
265 -> 267 ;
268 [label="gini = 0.0\nsamples = 16\nvalue = [0, 16]\nclass = Purchased", fillcolor="#399de5"] ;
258 -> 268 ;
269 [label="annual_salary <= 146750.0\ngini = 0.49\nsamples = 7\nvalue = [3, 4]\nclass = Purchased", fillcolor="#cee6f8"] ;
257 -> 269 ;
270 [label="annual_salary <= 130250.0\ngini = 0.375\nsamples = 4\nvalue = [3, 1]\nclass = Not purchased", fillcolor="#eeab7b"] ;
269 -> 270 ;
271 [label="gini = 0.0\nsamples = 1\nvalue = [0, 1]\nclass = Purchased", fillcolor="#399de5"] ;
270 -> 271 ;
272 [label="gini = 0.0\nsamples = 3\nvalue = [3, 0]\nclass = Not purchased", fillcolor="#e58139"] ;
270 -> 272 ;
273 [label="gini = 0.0\nsamples = 3\nvalue = [0, 3]\nclass = Purchased", fillcolor="#399de5"] ;
269 -> 273 ;
274 [label="gini = 0.0\nsamples = 42\nvalue = [0, 42]\nclass = Purchased", fillcolor="#399de5"] ;
244 -> 274 ;
}